digraph Tree {
node [shape=box] ;
0 [label="Gender <= 0.5\ngini = 0.473\nsamples = 891\nvalue = [549, 342]\nclass = Perish"] ;
1 [label="Age_mean <= 6.5\ngini = 0.306\nsamples = 577\nvalue = [468, 109]\nclass = Perish"] ;
0 -> 1 [labeldistance=2.5, labelangle=45, headlabel="True"] ;
2 [label="Family_L <= 0.5\ngini = 0.444\nsamples = 24\nvalue = [8, 16]\nclass = Survived"] ;
1 -> 2 ;
3 [label="gini = 0.0\nsamples = 15\nvalue = [0, 15]\nclass = Survived"] ;
2 -> 3 ;
4 [label="gini = 0.198\nsamples = 9\nvalue = [8, 1]\nclass = Perish"] ;
2 -> 4 ;
5 [label="Embarked_C <= 0.5\ngini = 0.28\nsamples = 553\nvalue = [460, 93]\nclass = Perish"] ;
1 -> 5 ;
6 [label="gini = 0.246\nsamples = 460\nvalue = [394, 66]\nclass = Perish"] ;
5 -> 6 ;
7 [label="gini = 0.412\nsamples = 93\nvalue = [66, 27]\nclass = Perish"] ;
5 -> 7 ;
8 [label="Family_L <= 0.5\ngini = 0.383\nsamples = 314\nvalue = [81, 233]\nclass = Survived"] ;
0 -> 8 [labeldistance=2.5, labelangle=-45, headlabel="False"] ;
9 [label="Age_mean <= 32.25\ngini = 0.323\nsamples = 281\nvalue = [57, 224]\nclass = Survived"] ;
8 -> 9 ;
10 [label="gini = 0.363\nsamples = 197\nvalue = [47, 150]\nclass = Survived"] ;
9 -> 10 ;
11 [label="gini = 0.21\nsamples = 84\nvalue = [10, 74]\nclass = Survived"] ;
9 -> 11 ;
12 [label="Embarked_C <= 0.5\ngini = 0.397\nsamples = 33\nvalue = [24, 9]\nclass = Perish"] ;
8 -> 12 ;
13 [label="gini = 0.35\nsamples = 31\nvalue = [24, 7]\nclass = Perish"] ;
12 -> 13 ;
14 [label="gini = 0.0\nsamples = 2\nvalue = [0, 2]\nclass = Survived"] ;
12 -> 14 ;
}